digraph Tree {
node [shape=box, style="filled, rounded", color="black", fontname=helvetica] ;
edge [fontname=helvetica] ;
0 [label="item_cnt_month_mean <= 2.458\nmse = 0.209\nsamples = 1132662\nvalue = 0.947", fillcolor="#e581394a"] ;
1 [label="item_cnt_month_mean <= 1.449\nmse = 0.07\nsamples = 900285\nvalue = 0.823", fillcolor="#e581393f"] ;
0 -> 1 [labeldistance=2.5, labelangle=45, headlabel="True"] ;
2 [label="item_cnt_month_mean <= 1.127\nmse = 0.021\nsamples = 579917\nvalue = 0.736", fillcolor="#e5813937"] ;
1 -> 2 ;
3 [label="item_cnt_month_mean <= 0.69\nmse = 0.004\nsamples = 355814\nvalue = 0.695", fillcolor="#e5813933"] ;
2 -> 3 ;
4 [label="item_cnt_month_mean <= 0.292\nmse = 0.123\nsamples = 1695\nvalue = 0.408", fillcolor="#e5813919"] ;
3 -> 4 ;
5 [label="item_id <= 20711.5\nmse = 0.085\nsamples = 293\nvalue = 0.152", fillcolor="#e5813902"] ;
4 -> 5 ;
6 [label="mse = 0.078\nsamples = 272\nvalue = 0.134", fillcolor="#e5813900"] ;
5 -> 6 ;
7 [label="mse = 0.12\nsamples = 21\nvalue = 0.355", fillcolor="#e5813914"] ;
5 -> 7 ;
8 [label="item_cnt_month_mean <= 0.586\nmse = 0.114\nsamples = 1402\nvalue = 0.462", fillcolor="#e581391e"] ;
4 -> 8 ;
9 [label="mse = 0.122\nsamples = 765\nvalue = 0.427", fillcolor="#e581391b"] ;
8 -> 9 ;
10 [label="mse = 0.102\nsamples = 637\nvalue = 0.502", fillcolor="#e5813921"] ;
8 -> 10 ;
11 [label="item_cnt_month_mean <= 1.054\nmse = 0.003\nsamples = 354119\nvalue = 0.696", fillcolor="#e5813933"] ;
3 -> 11 ;
12 [label="item_cnt_month_mean <= 0.913\nmse = 0.001\nsamples = 320779\nvalue = 0.692", fillcolor="#e5813933"] ;
11 -> 12 ;
13 [label="mse = 0.075\nsamples = 2024\nvalue = 0.595", fillcolor="#e581392a"] ;
12 -> 13 ;
14 [label="mse = 0.001\nsamples = 318755\nvalue = 0.693", fillcolor="#e5813933"] ;
12 -> 14 ;
15 [label="item_cnt_month_mean <= 1.106\nmse = 0.017\nsamples = 33340\nvalue = 0.734", fillcolor="#e5813936"] ;
11 -> 15 ;
16 [label="mse = 0.015\nsamples = 16073\nvalue = 0.726", fillcolor="#e5813936"] ;
15 -> 16 ;
17 [label="mse = 0.019\nsamples = 17267\nvalue = 0.741", fillcolor="#e5813937"] ;
15 -> 17 ;
18 [label="item_cnt_month_mean <= 1.293\nmse = 0.041\nsamples = 224103\nvalue = 0.802", fillcolor="#e581393d"] ;
2 -> 18 ;
19 [label="item_cnt_month_mean <= 1.232\nmse = 0.031\nsamples = 124476\nvalue = 0.777", fillcolor="#e581393a"] ;
18 -> 19 ;
20 [label="date_block_num <= 12.5\nmse = 0.027\nsamples = 76483\nvalue = 0.766", fillcolor="#e5813939"] ;
19 -> 20 ;
21 [label="mse = 0.03\nsamples = 35878\nvalue = 0.778", fillcolor="#e581393b"] ;
20 -> 21 ;
22 [label="mse = 0.023\nsamples = 40605\nvalue = 0.755", fillcolor="#e5813938"] ;
20 -> 22 ;
23 [label="date_block_num <= 11.5\nmse = 0.037\nsamples = 47993\nvalue = 0.795", fillcolor="#e581393c"] ;
19 -> 23 ;
24 [label="mse = 0.04\nsamples = 21135\nvalue = 0.812", fillcolor="#e581393e"] ;
23 -> 24 ;
25 [label="mse = 0.033\nsamples = 26858\nvalue = 0.782", fillcolor="#e581393b"] ;
23 -> 25 ;
26 [label="year <= 2013.5\nmse = 0.051\nsamples = 99627\nvalue = 0.833", fillcolor="#e5813940"] ;
18 -> 26 ;
27 [label="month <= 3.5\nmse = 0.057\nsamples = 42595\nvalue = 0.858", fillcolor="#e5813942"] ;
26 -> 27 ;
28 [label="mse = 0.063\nsamples = 10446\nvalue = 0.888", fillcolor="#e5813944"] ;
27 -> 28 ;
29 [label="mse = 0.055\nsamples = 32149\nvalue = 0.848", fillcolor="#e5813941"] ;
27 -> 29 ;
30 [label="month <= 11.5\nmse = 0.046\nsamples = 57032\nvalue = 0.815", fillcolor="#e581393e"] ;
26 -> 30 ;
31 [label="mse = 0.044\nsamples = 52884\nvalue = 0.81", fillcolor="#e581393d"] ;
30 -> 31 ;
32 [label="mse = 0.063\nsamples = 4148\nvalue = 0.881", fillcolor="#e5813944"] ;
30 -> 32 ;
33 [label="item_cnt_month_mean <= 1.883\nmse = 0.121\nsamples = 320368\nvalue = 0.979", fillcolor="#e581394d"] ;
1 -> 33 ;
34 [label="item_cnt_month_mean <= 1.649\nmse = 0.09\nsamples = 183145\nvalue = 0.921", fillcolor="#e5813947"] ;
33 -> 34 ;
35 [label="date_block_num <= 12.5\nmse = 0.073\nsamples = 98436\nvalue = 0.891", fillcolor="#e5813945"] ;
34 -> 35 ;
36 [label="date_block_num <= 2.5\nmse = 0.081\nsamples = 44874\nvalue = 0.923", fillcolor="#e5813948"] ;
35 -> 36 ;
37 [label="mse = 0.087\nsamples = 11129\nvalue = 0.963", fillcolor="#e581394b"] ;
36 -> 37 ;
38 [label="mse = 0.079\nsamples = 33745\nvalue = 0.91", fillcolor="#e5813946"] ;
36 -> 38 ;
39 [label="month <= 11.5\nmse = 0.065\nsamples = 53562\nvalue = 0.865", fillcolor="#e5813942"] ;
35 -> 39 ;
40 [label="mse = 0.062\nsamples = 49315\nvalue = 0.858", fillcolor="#e5813942"] ;
39 -> 40 ;
41 [label="mse = 0.091\nsamples = 4247\nvalue = 0.947", fillcolor="#e581394a"] ;
39 -> 41 ;
42 [label="year <= 2013.5\nmse = 0.107\nsamples = 84709\nvalue = 0.956", fillcolor="#e581394b"] ;
34 -> 42 ;
43 [label="month <= 3.5\nmse = 0.121\nsamples = 31882\nvalue = 1.0", fillcolor="#e581394f"] ;
42 -> 43 ;
44 [label="mse = 0.132\nsamples = 8063\nvalue = 1.057", fillcolor="#e5813954"] ;
43 -> 44 ;
45 [label="mse = 0.115\nsamples = 23819\nvalue = 0.981", fillcolor="#e581394d"] ;
43 -> 45 ;
46 [label="month <= 11.5\nmse = 0.097\nsamples = 52827\nvalue = 0.928", fillcolor="#e5813948"] ;
42 -> 46 ;
47 [label="mse = 0.093\nsamples = 48869\nvalue = 0.918", fillcolor="#e5813947"] ;
46 -> 47 ;
48 [label="mse = 0.138\nsamples = 3958\nvalue = 1.051", fillcolor="#e5813953"] ;
46 -> 48 ;
49 [label="year <= 2013.5\nmse = 0.153\nsamples = 137223\nvalue = 1.055", fillcolor="#e5813954"] ;
33 -> 49 ;
50 [label="item_cnt_month_mean <= 2.229\nmse = 0.172\nsamples = 47256\nvalue = 1.124", fillcolor="#e581395a"] ;
49 -> 50 ;
51 [label="item_category_id <= 77.5\nmse = 0.154\nsamples = 34320\nvalue = 1.096", fillcolor="#e5813957"] ;
50 -> 51 ;
52 [label="mse = 0.154\nsamples = 33000\nvalue = 1.104", fillcolor="#e5813958"] ;
51 -> 52 ;
53 [label="mse = 0.108\nsamples = 1320\nvalue = 0.895", fillcolor="#e5813945"] ;
51 -> 53 ;
54 [label="date_block_num <= 2.5\nmse = 0.214\nsamples = 12936\nvalue = 1.2", fillcolor="#e5813961"] ;
50 -> 54 ;
55 [label="mse = 0.231\nsamples = 2934\nvalue = 1.292", fillcolor="#e5813969"] ;
54 -> 55 ;
56 [label="mse = 0.206\nsamples = 10002\nvalue = 1.173", fillcolor="#e581395e"] ;
54 -> 56 ;
57 [label="month <= 11.5\nmse = 0.138\nsamples = 89967\nvalue = 1.019", fillcolor="#e5813950"] ;
49 -> 57 ;
58 [label="date_block_num <= 27.5\nmse = 0.133\nsamples = 83101\nvalue = 1.006", fillcolor="#e581394f"] ;
57 -> 58 ;
59 [label="mse = 0.141\nsamples = 65532\nvalue = 1.022", fillcolor="#e5813951"] ;
58 -> 59 ;
60 [label="mse = 0.098\nsamples = 17569\nvalue = 0.949", fillcolor="#e581394a"] ;
58 -> 60 ;
61 [label="item_category_id <= 56.5\nmse = 0.183\nsamples = 6866\nvalue = 1.172", fillcolor="#e581395e"] ;
57 -> 61 ;
62 [label="mse = 0.186\nsamples = 4033\nvalue = 1.114", fillcolor="#e5813959"] ;
61 -> 62 ;
63 [label="mse = 0.168\nsamples = 2833\nvalue = 1.255", fillcolor="#e5813966"] ;
61 -> 63 ;
64 [label="item_cnt_month_mean <= 5.189\nmse = 0.454\nsamples = 232377\nvalue = 1.428", fillcolor="#e5813976"] ;
0 -> 64 [labeldistance=2.5, labelangle=-45, headlabel="False"] ;
65 [label="item_cnt_month_mean <= 3.495\nmse = 0.316\nsamples = 168701\nvalue = 1.289", fillcolor="#e5813969"] ;
64 -> 65 ;
66 [label="year <= 2013.5\nmse = 0.255\nsamples = 107611\nvalue = 1.217", fillcolor="#e5813962"] ;
65 -> 66 ;
67 [label="item_cnt_month_mean <= 2.82\nmse = 0.296\nsamples = 34734\nvalue = 1.333", fillcolor="#e581396d"] ;
66 -> 67 ;
68 [label="month <= 3.5\nmse = 0.258\nsamples = 16318\nvalue = 1.263", fillcolor="#e5813967"] ;
67 -> 68 ;
69 [label="mse = 0.267\nsamples = 4086\nvalue = 1.361", fillcolor="#e581396f"] ;
68 -> 69 ;
70 [label="mse = 0.251\nsamples = 12232\nvalue = 1.231", fillcolor="#e5813964"] ;
68 -> 70 ;
71 [label="date_block_num <= 2.5\nmse = 0.321\nsamples = 18416\nvalue = 1.394", fillcolor="#e5813972"] ;
67 -> 71 ;
72 [label="mse = 0.327\nsamples = 4511\nvalue = 1.502", fillcolor="#e581397c"] ;
71 -> 72 ;
73 [label="mse = 0.314\nsamples = 13905\nvalue = 1.359", fillcolor="#e581396f"] ;
71 -> 73 ;
74 [label="date_block_num <= 25.5\nmse = 0.226\nsamples = 72877\nvalue = 1.162", fillcolor="#e581395d"] ;
66 -> 74 ;
75 [label="item_cnt_prev_month <= 0.5\nmse = 0.243\nsamples = 51471\nvalue = 1.199", fillcolor="#e5813961"] ;
74 -> 75 ;
76 [label="mse = 0.233\nsamples = 34471\nvalue = 1.158", fillcolor="#e581395d"] ;
75 -> 76 ;
77 [label="mse = 0.254\nsamples = 17000\nvalue = 1.281", fillcolor="#e5813968"] ;
75 -> 77 ;
78 [label="item_cnt_prev_month <= 0.5\nmse = 0.175\nsamples = 21406\nvalue = 1.074", fillcolor="#e5813955"] ;
74 -> 78 ;
79 [label="mse = 0.165\nsamples = 9310\nvalue = 1.007", fillcolor="#e581394f"] ;
78 -> 79 ;
80 [label="mse = 0.176\nsamples = 12096\nvalue = 1.125", fillcolor="#e581395a"] ;
78 -> 80 ;
81 [label="date_block_num <= 11.5\nmse = 0.398\nsamples = 61090\nvalue = 1.416", fillcolor="#e5813974"] ;
65 -> 81 ;
82 [label="item_cnt_month_mean <= 4.383\nmse = 0.436\nsamples = 20078\nvalue = 1.589", fillcolor="#e5813984"] ;
81 -> 82 ;
83 [label="date_block_num <= 2.5\nmse = 0.404\nsamples = 13287\nvalue = 1.532", fillcolor="#e581397f"] ;
82 -> 83 ;
84 [label="mse = 0.409\nsamples = 3195\nvalue = 1.646", fillcolor="#e5813989"] ;
83 -> 84 ;
85 [label="mse = 0.397\nsamples = 10092\nvalue = 1.496", fillcolor="#e581397c"] ;
83 -> 85 ;
86 [label="month <= 3.5\nmse = 0.481\nsamples = 6791\nvalue = 1.702", fillcolor="#e581398e"] ;
82 -> 86 ;
87 [label="mse = 0.431\nsamples = 1439\nvalue = 1.837", fillcolor="#e581399b"] ;
86 -> 87 ;
88 [label="mse = 0.488\nsamples = 5352\nvalue = 1.666", fillcolor="#e581398b"] ;
86 -> 88 ;
89 [label="date_block_num <= 24.5\nmse = 0.357\nsamples = 41012\nvalue = 1.331", fillcolor="#e581396d"] ;
81 -> 89 ;
90 [label="item_cnt_prev_month <= 0.5\nmse = 0.381\nsamples = 26526\nvalue = 1.39", fillcolor="#e5813972"] ;
89 -> 90 ;
91 [label="mse = 0.371\nsamples = 19590\nvalue = 1.349", fillcolor="#e581396e"] ;
90 -> 91 ;
92 [label="mse = 0.392\nsamples = 6936\nvalue = 1.504", fillcolor="#e581397c"] ;
90 -> 92 ;
93 [label="item_cnt_prev_month <= 0.5\nmse = 0.296\nsamples = 14486\nvalue = 1.224", fillcolor="#e5813963"] ;
89 -> 93 ;
94 [label="mse = 0.254\nsamples = 6588\nvalue = 1.109", fillcolor="#e5813958"] ;
93 -> 94 ;
95 [label="mse = 0.31\nsamples = 7898\nvalue = 1.321", fillcolor="#e581396c"] ;
93 -> 95 ;
96 [label="item_cnt_month_mean <= 14.243\nmse = 0.632\nsamples = 63676\nvalue = 1.799", fillcolor="#e5813997"] ;
64 -> 96 ;
97 [label="item_cnt_month_mean <= 7.906\nmse = 0.596\nsamples = 58423\nvalue = 1.744", fillcolor="#e5813992"] ;
96 -> 97 ;
98 [label="date_block_num <= 24.5\nmse = 0.544\nsamples = 32163\nvalue = 1.631", fillcolor="#e5813988"] ;
97 -> 98 ;
99 [label="date_block_num <= 12.5\nmse = 0.561\nsamples = 24292\nvalue = 1.71", fillcolor="#e581398f"] ;
98 -> 99 ;
100 [label="mse = 0.574\nsamples = 11237\nvalue = 1.804", fillcolor="#e5813998"] ;
99 -> 100 ;
101 [label="mse = 0.536\nsamples = 13055\nvalue = 1.628", fillcolor="#e5813988"] ;
99 -> 101 ;
102 [label="item_cnt_prev_month <= 1.5\nmse = 0.414\nsamples = 7871\nvalue = 1.39", fillcolor="#e5813972"] ;
98 -> 102 ;
103 [label="mse = 0.38\nsamples = 4638\nvalue = 1.269", fillcolor="#e5813967"] ;
102 -> 103 ;
104 [label="mse = 0.411\nsamples = 3233\nvalue = 1.563", fillcolor="#e5813982"] ;
102 -> 104 ;
105 [label="month <= 10.5\nmse = 0.624\nsamples = 26260\nvalue = 1.882", fillcolor="#e581399f"] ;
97 -> 105 ;
106 [label="item_cnt_month_mean <= 14.211\nmse = 0.601\nsamples = 22521\nvalue = 1.832", fillcolor="#e581399a"] ;
105 -> 106 ;
107 [label="mse = 0.602\nsamples = 17863\nvalue = 1.887", fillcolor="#e581399f"] ;
106 -> 107 ;
108 [label="mse = 0.543\nsamples = 4658\nvalue = 1.625", fillcolor="#e5813987"] ;
106 -> 108 ;
109 [label="date_block_num <= 10.5\nmse = 0.657\nsamples = 3739\nvalue = 2.185", fillcolor="#e58139ba"] ;
105 -> 109 ;
110 [label="mse = 0.735\nsamples = 767\nvalue = 1.908", fillcolor="#e58139a1"] ;
109 -> 110 ;
111 [label="mse = 0.612\nsamples = 2972\nvalue = 2.257", fillcolor="#e58139c1"] ;
109 -> 111 ;
112 [label="item_category_id <= 44.5\nmse = 0.642\nsamples = 5253\nvalue = 2.407", fillcolor="#e58139ce"] ;
96 -> 112 ;
113 [label="date_block_num <= 10.5\nmse = 0.731\nsamples = 3135\nvalue = 2.22", fillcolor="#e58139bd"] ;
112 -> 113 ;
114 [label="item_cnt_month_mean <= 26.045\nmse = 0.554\nsamples = 871\nvalue = 2.487", fillcolor="#e58139d6"] ;
113 -> 114 ;
115 [label="mse = 0.576\nsamples = 739\nvalue = 2.431", fillcolor="#e58139d1"] ;
114 -> 115 ;
116 [label="mse = 0.286\nsamples = 132\nvalue = 2.828", fillcolor="#e58139f5"] ;
114 -> 116 ;
117 [label="item_id <= 2810.5\nmse = 0.762\nsamples = 2264\nvalue = 2.115", fillcolor="#e58139b4"] ;
113 -> 117 ;
118 [label="mse = 0.738\nsamples = 273\nvalue = 1.612", fillcolor="#e5813986"] ;
117 -> 118 ;
119 [label="mse = 0.724\nsamples = 1991\nvalue = 2.186", fillcolor="#e58139ba"] ;
117 -> 119 ;
120 [label="item_price <= 1.787\nmse = 0.377\nsamples = 2118\nvalue = 2.687", fillcolor="#e58139e8"] ;
112 -> 120 ;
121 [label="item_price <= 1.453\nmse = 0.456\nsamples = 329\nvalue = 2.18", fillcolor="#e58139ba"] ;
120 -> 121 ;
122 [label="mse = 0.348\nsamples = 67\nvalue = 2.813", fillcolor="#e58139f3"] ;
121 -> 122 ;
123 [label="mse = 0.348\nsamples = 262\nvalue = 2.009", fillcolor="#e58139aa"] ;
121 -> 123 ;
124 [label="item_price <= 4.494\nmse = 0.308\nsamples = 1789\nvalue = 2.779", fillcolor="#e58139f0"] ;
120 -> 124 ;
125 [label="mse = 0.115\nsamples = 1051\nvalue = 2.942", fillcolor="#e58139ff"] ;
124 -> 125 ;
126 [label="mse = 0.495\nsamples = 738\nvalue = 2.54", fillcolor="#e58139db"] ;
124 -> 126 ;
}